<?xml version="1.0"?>
<opencv_storage>
<!-- Created using Computer Vision Toolbox(tm) for MATLAB(R) -->
<!-- Version 23.2.0.2515942 (R2023b) Update 7 -->
<!-- Compatible with OpenCV 4.5 -->
<cascade>
  <stageType>BOOST</stageType>
  <featureType>LBP</featureType>
  <height>32</height>
  <width>32</width>
  <stageParams>
    <boostType>GAB</boostType>
    <minHitRate>9.9500000476837158e-01</minHitRate>
    <maxFalseAlarm>1.0000000149011612e-01</maxFalseAlarm>
    <weightTrimRate>9.4999999999999996e-01</weightTrimRate>
    <maxDepth>1</maxDepth>
    <maxWeakCount>100</maxWeakCount></stageParams>
  <featureParams>
    <maxCatCount>256</maxCatCount>
    <featSize>1</featSize></featureParams>
  <stageNum>5</stageNum>
  <stages>
    <!-- stage 0 -->
    <_>
      <maxWeakCount>10</maxWeakCount>
      <stageThreshold>-1.6302462816238403e+00</stageThreshold>
      <weakClassifiers>
        <_>
          <internalNodes>
            0 -1 10 -1430279510 -4194881 46074815 -16385 -4097 -1 -1 -1</internalNodes>
          <leafValues>
            -8.7942522764205933e-01 4.5407709479331970e-01</leafValues></_>
        <_>
          <internalNodes>
            0 -1 46 -795815792 -570735532 3215735 -33597953 -1431638854
            -626375504 -1145307137 -1</internalNodes>
          <leafValues>
            -8.0841809511184692e-01 5.8645051717758179e-01</leafValues></_>
        <_>
          <internalNodes>
            0 -1 61 -545412161 1431634711 1945840299 389488683 306623
            206520119 8063147 -21845</internalNodes>
          <leafValues>
            -6.7228281497955322e-01 5.3897178173065186e-01</leafValues></_>
        <_>
          <internalNodes>
            0 -1 17 -269484033 -269488145 -1 -1 -1 -1 -1 -1</internalNodes>
          <leafValues>
            -4.7743764519691467e-01 7.7420139312744141e-01</leafValues></_>
        <_>
          <internalNodes>
            0 -1 102 -801059126 -782969413 -190652742 -44972014
            -732722038 -536657 -67117141 -13653</internalNodes>
          <leafValues>
            -4.3896335363388062e-01 6.4320862293243408e-01</leafValues></_>
        <_>
          <internalNodes>
            0 -1 75 -16847232 -319887154 -352540916 -16844098 -67387552
            -17110612 -8388676 -24657</internalNodes>
          <leafValues>
            -5.7590353488922119e-01 4.3528157472610474e-01</leafValues></_>
        <_>
          <internalNodes>
            0 -1 127 -142670473 -134742921 -154444929 -1024327681
            1968919860 -447259689 -151520577 -92536833</internalNodes>
          <leafValues>
            -4.2028203606605530e-01 5.0986075401306152e-01</leafValues></_>
        <_>
          <internalNodes>
            0 -1 47 1426449536 922857122 -1220811644 -21265 -721311759
            901754863 -802960646 -4445</internalNodes>
          <leafValues>
            -4.6496480703353882e-01 4.8632130026817322e-01</leafValues></_>
        <_>
          <internalNodes>
            0 -1 81 -84214086 -1146423390 -16477 -7606494 1207370495
            1018658810 737872106 1073155123</internalNodes>
          <leafValues>
            -4.8841220140457153e-01 4.0012902021408081e-01</leafValues></_>
        <_>
          <internalNodes>
            0 -1 15 -16777217 -50331713 -554829121 -25183829 -1 -4683
            -20971521 -84935429</internalNodes>
          <leafValues>
            -3.1619769334793091e-01 6.9416016340255737e-01</leafValues></_></weakClassifiers></_>
    <!-- stage 1 -->
    <_>
      <maxWeakCount>23</maxWeakCount>
      <stageThreshold>-1.7397422790527344e+00</stageThreshold>
      <weakClassifiers>
        <_>
          <internalNodes>
            0 -1 37 -545259521 -15466633 -549475397 -12866885 -840966657
            -545259521 -805336133 -545281089</internalNodes>
          <leafValues>
            -7.5688463449478149e-01 3.6904051899909973e-01</leafValues></_>
        <_>
          <internalNodes>
            0 -1 11 -1073741825 -269484033 -134217729 -1025 -134217729
            -201328641 -201326601 -1</internalNodes>
          <leafValues>
            -5.9854888916015625e-01 5.7592993974685669e-01</leafValues></_>
        <_>
          <internalNodes>
            0 -1 42 -16140 867955131 -1342181393 1002419131 -2110225
            1073741823 -1360097618 1002418095</internalNodes>
          <leafValues>
            -5.4341334104537964e-01 4.2763093113899231e-01</leafValues></_>
        <_>
          <internalNodes>
            0 -1 112 -14680317 -136315049 -799670513 -145227905
            -1489788414 561509943 -1576885726 -1</internalNodes>
          <leafValues>
            -3.6803653836250305e-01 5.8244955539703369e-01</leafValues></_>
        <_>
          <internalNodes>
            0 -1 19 -654313233 -33566545 -654327642 -536069 -1057502977
            -100957969 -503324425 2013264879</internalNodes>
          <leafValues>
            -3.6202123761177063e-01 5.5836278200149536e-01</leafValues></_>
        <_>
          <internalNodes>
            0 -1 67 1608355502 924303291 -210130774 972786314 1572801727
            2139095035 1442548906 -21846</internalNodes>
          <leafValues>
            -4.9598619341850281e-01 4.2254942655563354e-01</leafValues></_>
        <_>
          <internalNodes>
            0 -1 45 -171575936 -5248346 -71318347 -1077958001 -732563460
            -1079775317 -375330102 -1347440977</internalNodes>
          <leafValues>
            -4.7431781888008118e-01 3.6179947853088379e-01</leafValues></_>
        <_>
          <internalNodes>
            0 -1 12 -1060122930 4243656 1156961476 -1073707828
            -713594029 274743157 -144703617 -234881041</internalNodes>
          <leafValues>
            -4.2512440681457520e-01 3.8660535216331482e-01</leafValues></_>
        <_>
          <internalNodes>
            0 -1 99 1079001326 -721362980 -340244609 -574615724
            1188496895 -17043457 -285274113 -6615089</internalNodes>
          <leafValues>
            -4.9962139129638672e-01 3.0448776483535767e-01</leafValues></_>
        <_>
          <internalNodes>
            0 -1 87 -65664 -65546 -202844 -6361122 -524428 -4194305
            -537543548 -66052</internalNodes>
          <leafValues>
            -4.3478146195411682e-01 3.2666215300559998e-01</leafValues></_>
        <_>
          <internalNodes>
            0 -1 127 -536933393 -142653745 -218108369 -127238625
            -8630981 -295174321 -5242913 -1</internalNodes>
          <leafValues>
            -3.1613492965698242e-01 4.2768982052803040e-01</leafValues></_>
        <_>
          <internalNodes>
            0 -1 59 -21825 -838864913 1879042815 1283425006 -11011265 -1
            2117548586 1862247074</internalNodes>
          <leafValues>
            -4.0683898329734802e-01 3.6975690722465515e-01</leafValues></_>
        <_>
          <internalNodes>
            0 -1 72 -871828480 1547736656 1292697468 -44171779 -9112140
            1414856240 -1639973475 -513</internalNodes>
          <leafValues>
            -3.7636023759841919e-01 3.7950700521469116e-01</leafValues></_>
        <_>
          <internalNodes>
            0 -1 125 -144649782 -144707327 -727142272 -83909526
            -259327062 -418862966 -121770242 2097151999</internalNodes>
          <leafValues>
            -3.1069311499595642e-01 3.9066672325134277e-01</leafValues></_>
        <_>
          <internalNodes>
            0 -1 85 -799998722 -136328996 -145271041 -134656945
            -1069484332 1087694020 -235799073 -149433121</internalNodes>
          <leafValues>
            -3.5536593198776245e-01 3.3713293075561523e-01</leafValues></_>
        <_>
          <internalNodes>
            0 -1 29 -151008530 -146804993 -487685618 -1867323682
            1590445127 -696302537 -60959026 -166234113</internalNodes>
          <leafValues>
            -3.8198843598365784e-01 2.9946678876876831e-01</leafValues></_>
        <_>
          <internalNodes>
            0 -1 3 -811597953 -844108050 -184650765 -4882 -402653697
            1090445277 1979675425 -402655233</internalNodes>
          <leafValues>
            -3.5578295588493347e-01 3.1342419981956482e-01</leafValues></_>
        <_>
          <internalNodes>
            0 -1 33 -529129440 356499245 -1380762124 -161087489
            -889999435 -1108 -1168572481 -40329825</internalNodes>
          <leafValues>
            -4.1983377933502197e-01 2.6111367344856262e-01</leafValues></_>
        <_>
          <internalNodes>
            0 -1 54 1073210575 1073722815 -536871233 737376175 521028751
            1060986879 -20018676 603663675</internalNodes>
          <leafValues>
            -4.4930517673492432e-01 2.4891629815101624e-01</leafValues></_>
        <_>
          <internalNodes>
            0 -1 69 -852085 742206269 993728139 431830971 -1076322672
            -1805743156 -2026170062 155126543</internalNodes>
          <leafValues>
            -3.6797764897346497e-01 2.8321978449821472e-01</leafValues></_>
        <_>
          <internalNodes>
            0 -1 14 -30414084 -119570693 -16846164 -51462434 -555762468
            1446438012 -453780778 -69468674</internalNodes>
          <leafValues>
            -3.0114120244979858e-01 3.5221481323242188e-01</leafValues></_>
        <_>
          <internalNodes>
            0 -1 84 1968569540 -545979739 -1845494787 -540600969
            625239537 2146814423 2000791551 1970779519</internalNodes>
          <leafValues>
            -4.2158684134483337e-01 2.5963723659515381e-01</leafValues></_>
        <_>
          <internalNodes>
            0 -1 116 -4456462 705215310 -324012286 229108610 -402655247
            -958529601 1374810400 -442502197</internalNodes>
          <leafValues>
            -3.4298270940780640e-01 3.0435138940811157e-01</leafValues></_></weakClassifiers></_>
    <!-- stage 2 -->
    <_>
      <maxWeakCount>24</maxWeakCount>
      <stageThreshold>-1.7869389057159424e+00</stageThreshold>
      <weakClassifiers>
        <_>
          <internalNodes>
            0 -1 20 -1342177281 -1 -1 -1 -1 -1 -1 -1</internalNodes>
          <leafValues>
            -7.7182805538177490e-01 4.0583375096321106e-01</leafValues></_>
        <_>
          <internalNodes>
            0 -1 55 -16385 -11010283 -21825 -8934605 80723967 -808452225
            -33576257 -21505</internalNodes>
          <leafValues>
            -5.7815527915954590e-01 4.6897345781326294e-01</leafValues></_>
        <_>
          <internalNodes>
            0 -1 32 2147430183 2139094847 2147427199 -1 -61441 -16449
            -4353 -1</internalNodes>
          <leafValues>
            -4.1726118326187134e-01 5.1713895797729492e-01</leafValues></_>
        <_>
          <internalNodes>
            0 -1 56 893334832 1073725247 -268435649 -1349517393
            -50465540 -1 -318903041 -1364197441</internalNodes>
          <leafValues>
            -5.0457286834716797e-01 3.6960569024085999e-01</leafValues></_>
        <_>
          <internalNodes>
            0 -1 106 -129 -8388609 -21761 -83886081 -129 -8389121 -46337
            -1</internalNodes>
          <leafValues>
            -2.9286044836044312e-01 5.9507203102111816e-01</leafValues></_>
        <_>
          <internalNodes>
            0 -1 96 -3 -131073 -1 -65602 -3 -3 -12 -16974592</internalNodes>
          <leafValues>
            -2.4863100051879883e-01 5.7989645004272461e-01</leafValues></_>
        <_>
          <internalNodes>
            0 -1 31 -268435457 -1346372099 -1 -3 -268435457 -838860803
            -133129 -3</internalNodes>
          <leafValues>
            -2.7070030570030212e-01 5.7288038730621338e-01</leafValues></_>
        <_>
          <internalNodes>
            0 -1 103 1089777582 -196019233 -16842753 -3080194 -2682881
            -32769 -115718 -68649126</internalNodes>
          <leafValues>
            -4.4321191310882568e-01 3.6025246977806091e-01</leafValues></_>
        <_>
          <internalNodes>
            0 -1 79 -285282388 -320536577 -65540 -285696020 -4267
            -33554433 -76 -196612</internalNodes>
          <leafValues>
            -4.7964632511138916e-01 3.0204027891159058e-01</leafValues></_>
        <_>
          <internalNodes>
            0 -1 15 -1 -16777217 -1 -16785409 -671088769 -2228289
            -4194305 -16777217</internalNodes>
          <leafValues>
            -2.6456069946289062e-01 5.5114096403121948e-01</leafValues></_>
        <_>
          <internalNodes>
            0 -1 93 -524425 -16521 -65 -268468361 -2053 -11 -33554433
            -270043615</internalNodes>
          <leafValues>
            -2.5482004880905151e-01 5.4976385831832886e-01</leafValues></_>
        <_>
          <internalNodes>
            0 -1 22 -92340225 813104767 -17119496 539159206 -159449219
            1349902199 -33555596 -251659017</internalNodes>
          <leafValues>
            -3.4209781885147095e-01 3.7569054961204529e-01</leafValues></_>
        <_>
          <internalNodes>
            0 -1 70 -10485761 -8193 -75530241 -33 -536883201 -98593
            -40993 -1467330657</internalNodes>
          <leafValues>
            -2.6556590199470520e-01 4.4041147828102112e-01</leafValues></_>
        <_>
          <internalNodes>
            0 -1 128 -8437757 -272695489 -131330 -293666833 -64186
            -1605633 -301990428 -453836953</internalNodes>
          <leafValues>
            -3.7009018659591675e-01 3.0898520350456238e-01</leafValues></_>
        <_>
          <internalNodes>
            0 -1 98 49417978 2079391731 -537023617 -202293392 1878993663
            -1609730 -16822705 -37049</internalNodes>
          <leafValues>
            -4.2989701032638550e-01 2.6252490282058716e-01</leafValues></_>
        <_>
          <internalNodes>
            0 -1 26 -424677713 586066170 -360763573 -320034110
            1040151415 67002303 -270579865 -2097324</internalNodes>
          <leafValues>
            -3.8999003171920776e-01 2.7977305650711060e-01</leafValues></_>
        <_>
          <internalNodes>
            0 -1 111 -38273232 2159264 -302050160 -1918834448
            -1787039753 -50601985 503076180 -572668459</internalNodes>
          <leafValues>
            -4.3119004368782043e-01 2.5348016619682312e-01</leafValues></_>
        <_>
          <internalNodes>
            0 -1 17 -403972113 1290784751 -16716 -83956225 2013265695
            1256718303 -553651852 -185139294</internalNodes>
          <leafValues>
            -4.3229517340660095e-01 2.3381039500236511e-01</leafValues></_>
        <_>
          <internalNodes>
            0 -1 86 -972037630 -864816830 -1943302392 -421288434
            -360712953 -286787680 -72397037 -8388857</internalNodes>
          <leafValues>
            -3.8594353199005127e-01 2.6952821016311646e-01</leafValues></_>
        <_>
          <internalNodes>
            0 -1 40 -353186184 -557920773 -1229426947 -1502445633
            1076909300 -665355521 -1100292872 -17629189</internalNodes>
          <leafValues>
            -3.9245542883872986e-01 2.6739487051963806e-01</leafValues></_>
        <_>
          <internalNodes>
            0 -1 49 1427482368 1033351103 -8458308 -1074807058
            1362493413 -1078039042 -1108030279 -1915892596</internalNodes>
          <leafValues>
            -4.0132176876068115e-01 2.4766893684864044e-01</leafValues></_>
        <_>
          <internalNodes>
            0 -1 120 -43694 -671090049 -151062530 1652292347 -6445312
            -648036481 -67128610 -126615937</internalNodes>
          <leafValues>
            -3.5047459602355957e-01 2.9970395565032959e-01</leafValues></_>
        <_>
          <internalNodes>
            0 -1 71 -548082770 419495703 -142635090 -9962530 81214459
            70700989 -67899733 -151003186</internalNodes>
          <leafValues>
            -3.6150002479553223e-01 2.7684912085533142e-01</leafValues></_>
        <_>
          <internalNodes>
            0 -1 92 749875061 -577 -524289 -33 -304776227 -2099205
            -1249537 -757836</internalNodes>
          <leafValues>
            -2.6232472062110901e-01 3.5966226458549500e-01</leafValues></_></weakClassifiers></_>
    <!-- stage 3 -->
    <_>
      <maxWeakCount>36</maxWeakCount>
      <stageThreshold>-1.7466943264007568e+00</stageThreshold>
      <weakClassifiers>
        <_>
          <internalNodes>
            0 -1 2 -1342177281 -1 -1 -1 -1 -1 -137 -1</internalNodes>
          <leafValues>
            -7.7425867319107056e-01 1.6033774614334106e-01</leafValues></_>
        <_>
          <internalNodes>
            0 -1 43 -1115137 1431651669 -21573 -21505 -2012676177
            -17899691 -903169093 -17409</internalNodes>
          <leafValues>
            -5.0316524505615234e-01 4.0215864777565002e-01</leafValues></_>
        <_>
          <internalNodes>
            0 -1 110 -235 -142606465 -1073762385 -134217729 -16579
            -8388801 -1346425048 -1359151172</internalNodes>
          <leafValues>
            -3.8451215624809265e-01 4.1945171356201172e-01</leafValues></_>
        <_>
          <internalNodes>
            0 -1 62 -37321 -1073758413 -16777473 -1073741889 -45876
            -1073741889 -285225780 -1358954821</internalNodes>
          <leafValues>
            -3.4644585847854614e-01 3.9991387724876404e-01</leafValues></_>
        <_>
          <internalNodes>
            0 -1 126 -60041 -143132809 -279969809 -495452177 -1048713
            -33556769 -3073 -150995073</internalNodes>
          <leafValues>
            -3.1548050045967102e-01 4.1079100966453552e-01</leafValues></_>
        <_>
          <internalNodes>
            0 -1 83 -262873601 -11219636 -8450865 -63475 -254738435 -1
            -253371953 -4145</internalNodes>
          <leafValues>
            -2.9717373847961426e-01 4.5527175068855286e-01</leafValues></_>
        <_>
          <internalNodes>
            0 -1 21 -957354001 -1023431002 -975712395 -922810366
            -805306369 1089433399 -403308545 -1153</internalNodes>
          <leafValues>
            -3.1868180632591248e-01 4.0321564674377441e-01</leafValues></_>
        <_>
          <internalNodes>
            0 -1 50 1998714803 -1325334605 -135135233 -131137 -978980873
            -169541633 1565906397 -733675761</internalNodes>
          <leafValues>
            -3.1275549530982971e-01 3.7039223313331604e-01</leafValues></_>
        <_>
          <internalNodes>
            0 -1 64 -73729 -41985 -65537 -231543046 -528385 -1 -3342338
            -297731534</internalNodes>
          <leafValues>
            -2.5328508019447327e-01 4.2535907030105591e-01</leafValues></_>
        <_>
          <internalNodes>
            0 -1 16 -235409233 -134933 -771784542 -9310 -117441937
            -126375681 -83905803 1979186679</internalNodes>
          <leafValues>
            -2.9696351289749146e-01 3.7286722660064697e-01</leafValues></_>
        <_>
          <internalNodes>
            0 -1 60 2147459967 -268439553 -155077 -806506880 2004318071
            -8388609 1467293730 -269507934</internalNodes>
          <leafValues>
            -3.6517947912216187e-01 2.9599362611770630e-01</leafValues></_>
        <_>
          <internalNodes>
            0 -1 124 -17039615 -8391817 -218369294 -84216001 -206307584
            -268607577 -21236780 1928789859</internalNodes>
          <leafValues>
            -3.6066877841949463e-01 2.6166045665740967e-01</leafValues></_>
        <_>
          <internalNodes>
            0 -1 73 -857751617 -16417 -102766721 -5 -70254657
            -1610678545 -75501773 -1459950069</internalNodes>
          <leafValues>
            -2.4041458964347839e-01 4.0522116422653198e-01</leafValues></_>
        <_>
          <internalNodes>
            0 -1 114 -134219855 -821231683 -1883310176 -827326838
            1610085297 1121712099 1172828448 -224134157</internalNodes>
          <leafValues>
            -3.1241151690483093e-01 3.0488833785057068e-01</leafValues></_>
        <_>
          <internalNodes>
            0 -1 15 -1207960065 -21102593 -16777217 -16785481 -134217729
            -8390785 -1090519043 -83894529</internalNodes>
          <leafValues>
            -2.2732852399349213e-01 4.0600749850273132e-01</leafValues></_>
        <_>
          <internalNodes>
            0 -1 88 -65676 -16859137 -20484 -16863426 -16395 -131081
            -269021472 -1493424992</internalNodes>
          <leafValues>
            -4.3340346217155457e-01 2.2965499758720398e-01</leafValues></_>
        <_>
          <internalNodes>
            0 -1 77 1518301159 419692416 -201227 -7344254 83837183
            2092428287 -354464513 -16817921</internalNodes>
          <leafValues>
            -3.1461903452873230e-01 2.9521295428276062e-01</leafValues></_>
        <_>
          <internalNodes>
            0 -1 107 247349045 -536903811 -273155075 -21760133
            -1359053467 -557058 -22024195 -88313860</internalNodes>
          <leafValues>
            -3.1870248913764954e-01 2.8411233425140381e-01</leafValues></_>
        <_>
          <internalNodes>
            0 -1 105 -1356071120 18933504 -543959616 -1383673520
            -1413480645 -1389364249 -535051 -537144331</internalNodes>
          <leafValues>
            -3.6477696895599365e-01 2.3308284580707550e-01</leafValues></_>
        <_>
          <internalNodes>
            0 -1 3 -805306369 -456459281 -345054218 -327960 1509733375
            -1108410369 1970492977 -570427395</internalNodes>
          <leafValues>
            -3.3618837594985962e-01 2.5638830661773682e-01</leafValues></_>
        <_>
          <internalNodes>
            0 -1 78 -1037049854 1123281990 -886135294 -824768959
            -1436288222 -494928273 -892878333 -872431121</internalNodes>
          <leafValues>
            -3.7021291255950928e-01 2.3648704588413239e-01</leafValues></_>
        <_>
          <internalNodes>
            0 -1 57 824275233 1068236607 -1343226059 -1077941706
            1887303091 -4194306 -1395265025 -1366295912</internalNodes>
          <leafValues>
            -3.4718751907348633e-01 2.4179218709468842e-01</leafValues></_>
        <_>
          <internalNodes>
            0 -1 129 -377258206 -410845950 -16059166 -10289310
            -553058462 1594031872 -781072650 -45941838</internalNodes>
          <leafValues>
            -3.2775992155075073e-01 2.5993084907531738e-01</leafValues></_>
        <_>
          <internalNodes>
            0 -1 82 1363279706 298909683 523857535 1024663311 668937994
            654311423 1609502223 797920015</internalNodes>
          <leafValues>
            -4.4278410077095032e-01 1.9709968566894531e-01</leafValues></_>
        <_>
          <internalNodes>
            0 -1 39 -822098290 -62241 -92349714 -96807174 1114062916
            2139049805 -75573154 -10528161</internalNodes>
          <leafValues>
            -3.0676877498626709e-01 2.5653323531150818e-01</leafValues></_>
        <_>
          <internalNodes>
            0 -1 91 49938480 1501433407 -24355107 1823375227 -323072780
            -33599745 -320274692 -1165476036</internalNodes>
          <leafValues>
            -4.7099593281745911e-01 1.6530413925647736e-01</leafValues></_>
        <_>
          <internalNodes>
            0 -1 6 1476392807 1147593184 -10524732 -1096 402356093
            660600318 -25428127 -208670463</internalNodes>
          <leafValues>
            -2.9613932967185974e-01 2.6820591092109680e-01</leafValues></_>
        <_>
          <internalNodes>
            0 -1 36 -1366674412 -30228684 -1073889807 -2318476 805175293
            -4259841 799014653 -1342892587</internalNodes>
          <leafValues>
            -3.8647308945655823e-01 2.0908583700656891e-01</leafValues></_>
        <_>
          <internalNodes>
            0 -1 52 -155257360 -188154370 -35661953 -1310785 -53084704
            -523194688 -537010273 -1379403125</internalNodes>
          <leafValues>
            -2.1958409249782562e-01 3.6223700642585754e-01</leafValues></_>
        <_>
          <internalNodes>
            0 -1 94 -282924297 -290521089 -269549569 -271597759
            -849293323 -273285125 -147601417 -403357835</internalNodes>
          <leafValues>
            -2.5566145777702332e-01 3.0775886774063110e-01</leafValues></_>
        <_>
          <internalNodes>
            0 -1 8 -1378556596 -7219008 2072115371 -69600821 -72857137
            -89593142 -34608158 2147482569</internalNodes>
          <leafValues>
            -2.7956640720367432e-01 3.0303618311882019e-01</leafValues></_>
        <_>
          <internalNodes>
            0 -1 115 -34603025 -390115617 -2110 -1259436326 -545661135
            417595383 -1080173504 -419764250</internalNodes>
          <leafValues>
            -2.8680023550987244e-01 2.7318748831748962e-01</leafValues></_>
        <_>
          <internalNodes>
            0 -1 1 -167788385 -122748885 16515311 1575829724 -117442369
            422117431 14657543 -172494858</internalNodes>
          <leafValues>
            -2.1349357068538666e-01 3.5191485285758972e-01</leafValues></_>
        <_>
          <internalNodes>
            0 -1 66 1162935226 1347485680 1038860166 1365570711
            -72842326 -536870933 -1149092966 1374812123</internalNodes>
          <leafValues>
            -3.9906138181686401e-01 2.0196497440338135e-01</leafValues></_>
        <_>
          <internalNodes>
            0 -1 109 -2245025 1912593211 -169353217 1089195743 -11445930
            -96797585 -459777 -17772562</internalNodes>
          <leafValues>
            -2.5162690877914429e-01 3.0262839794158936e-01</leafValues></_>
        <_>
          <internalNodes>
            0 -1 113 -1067676416 1284825055 1566431581 1216143103
            -573640808 -285216082 -18895976 -2000122232</internalNodes>
          <leafValues>
            -3.5354238748550415e-01 2.2674354910850525e-01</leafValues></_></weakClassifiers></_>
    <!-- stage 4 -->
    <_>
      <maxWeakCount>42</maxWeakCount>
      <stageThreshold>-6.1899477243423462e-01</stageThreshold>
      <weakClassifiers>
        <_>
          <internalNodes>
            0 -1 4 -1342177281 -269746305 -134217745 -2049 -168034817
            -167772161 -167775241 -134217729</internalNodes>
          <leafValues>
            -2.3139461874961853e-02 7.5040179491043091e-01</leafValues></_>
        <_>
          <internalNodes>
            0 -1 34 -595591169 1526792063 -578843969 2134878905
            -867185409 -899678337 -855798593 -545280081</internalNodes>
          <leafValues>
            -2.8722402453422546e-01 5.4072719812393188e-01</leafValues></_>
        <_>
          <internalNodes>
            0 -1 9 -805310737 -1 -1445254401 -4194825 -268521473 -40961
            -1025 -1048577</internalNodes>
          <leafValues>
            -3.2556888461112976e-01 4.2564508318901062e-01</leafValues></_>
        <_>
          <internalNodes>
            0 -1 74 1946150831 859039743 -34347090 603320238 1375557631
            2147480573 1945466154 -18</internalNodes>
          <leafValues>
            -3.9370688796043396e-01 3.3334717154502869e-01</leafValues></_>
        <_>
          <internalNodes>
            0 -1 104 -991654162 -721625121 -302339074 -3092818 -61458
            -33657953 -71927058 -16765172</internalNodes>
          <leafValues>
            -4.2872646450996399e-01 2.6811742782592773e-01</leafValues></_>
        <_>
          <internalNodes>
            0 -1 35 -524328 -8650924 227208938 -805311894 -16252929
            -1153966287 253749130 1331642434</internalNodes>
          <leafValues>
            -4.0213242173194885e-01 2.4616871774196625e-01</leafValues></_>
        <_>
          <internalNodes>
            0 -1 123 -786945 -44049343 -201600782 -218964009 -664057505
            -47235573 -93596946 2130706431</internalNodes>
          <leafValues>
            -2.9367998242378235e-01 3.4392052888870239e-01</leafValues></_>
        <_>
          <internalNodes>
            0 -1 89 -11538433 -44564485 -1908437446 789302698
            -1086380225 -9437325 800014267 1059847979</internalNodes>
          <leafValues>
            -3.0378723144531250e-01 3.5526081919670105e-01</leafValues></_>
        <_>
          <internalNodes>
            0 -1 76 1885368099 -620630144 -107794473 -40138080 586883327
            -1107559425 1929063167 -1141167361</internalNodes>
          <leafValues>
            -3.8282358646392822e-01 2.4286003410816193e-01</leafValues></_>
        <_>
          <internalNodes>
            0 -1 24 -36046337 -814876171 -83823126 -545269318 -827654161
            -1915522451 -789580556 2145910773</internalNodes>
          <leafValues>
            -2.8675413131713867e-01 3.2084852457046509e-01</leafValues></_>
        <_>
          <internalNodes>
            0 -1 38 -270897153 -336318465 1304719293 -1210568933
            -4358537 -406192129 -335597601 -689291</internalNodes>
          <leafValues>
            -2.8095185756683350e-01 3.2635596394538879e-01</leafValues></_>
        <_>
          <internalNodes>
            0 -1 80 -92864516 -50399298 -4202498 -1094049244 2097146877
            -2496529 -403701848 -1094016224</internalNodes>
          <leafValues>
            -3.5941043496131897e-01 2.4093261361122131e-01</leafValues></_>
        <_>
          <internalNodes>
            0 -1 119 -4194541 3144991 -272976241 -1468007050 1895036435
            1902083431 -24134648 -290524210</internalNodes>
          <leafValues>
            -2.8017678856849670e-01 3.1340986490249634e-01</leafValues></_>
        <_>
          <internalNodes>
            0 -1 18 -1140854785 -179779281 -222315201 -104595457
            -33698849 -91554817 -285374977 2139799519</internalNodes>
          <leafValues>
            -2.1405008435249329e-01 4.1765037178993225e-01</leafValues></_>
        <_>
          <internalNodes>
            0 -1 48 1968567796 -1114443088 -1661344396 -1073744135
            1140914161 -1245743120 344061434 -1078220613</internalNodes>
          <leafValues>
            -3.6125150322914124e-01 2.7529776096343994e-01</leafValues></_>
        <_>
          <internalNodes>
            0 -1 30 -218182962 -419773349 -95355137 -231540529
            -722583476 83249279 -11022625 -17301633</internalNodes>
          <leafValues>
            -3.2549440860748291e-01 2.6830005645751953e-01</leafValues></_>
        <_>
          <internalNodes>
            0 -1 28 -269570117 -341074022 -1174963277 -1682200815
            1549630907 -536870985 1866429808 -134753643</internalNodes>
          <leafValues>
            -3.0694159865379333e-01 2.7923744916915894e-01</leafValues></_>
        <_>
          <internalNodes>
            0 -1 41 -1914847465 -270827691 -1894928635 -1894920956
            -119603854 -1375280295 788145719 783133461</internalNodes>
          <leafValues>
            -4.3239665031433105e-01 2.0917607843875885e-01</leafValues></_>
        <_>
          <internalNodes>
            0 -1 118 -8421505 -545916105 -831829763 -235015207
            -572527621 -538314690 -358743826 -75759681</internalNodes>
          <leafValues>
            -2.0270130038261414e-01 4.2534780502319336e-01</leafValues></_>
        <_>
          <internalNodes>
            0 -1 51 111291428 -285425698 -1105445894 -90386 767749108
            -1858601 -2375772 -4545100</internalNodes>
          <leafValues>
            -3.5385853052139282e-01 2.4481378495693207e-01</leafValues></_>
        <_>
          <internalNodes>
            0 -1 65 -526602 -24324 1306796276 1207903468 974176115
            -1170580230 591734644 1744303799</internalNodes>
          <leafValues>
            -3.3940252661705017e-01 2.4895673990249634e-01</leafValues></_>
        <_>
          <internalNodes>
            0 -1 121 -159907849 -355474433 -277134272 -281036826
            1704420277 1171321843 1106198544 -172494478</internalNodes>
          <leafValues>
            -2.7693223953247070e-01 2.9679998755455017e-01</leafValues></_>
        <_>
          <internalNodes>
            0 -1 7 -41943617 -721436439 905411939 -1081345 -68182531
            -183584419 -505766004 -101777730</internalNodes>
          <leafValues>
            -1.8231286108493805e-01 4.4650018215179443e-01</leafValues></_>
        <_>
          <internalNodes>
            0 -1 90 -1093911180 -344321 -1078060545 -1114141442
            -39897603 -1179112016 -1409713217 -1073795141</internalNodes>
          <leafValues>
            -2.2657009959220886e-01 3.7092831730842590e-01</leafValues></_>
        <_>
          <internalNodes>
            0 -1 53 10861482 71171319 -143261697 81132242 2147442507
            -607202086 -2105462 -251747686</internalNodes>
          <leafValues>
            -3.4899327158927917e-01 2.3425699770450592e-01</leafValues></_>
        <_>
          <internalNodes>
            0 -1 117 -500960957 33809143 -11551800 -1953512241
            -494155789 -221252893 -674262974 -2092436217</internalNodes>
          <leafValues>
            -2.9969704151153564e-01 2.6707273721694946e-01</leafValues></_>
        <_>
          <internalNodes>
            0 -1 5 -497030337 -405806281 -741029591 -84676888 -705205326
            2088230647 -688653958 -742661301</internalNodes>
          <leafValues>
            -2.1636848151683807e-01 3.6249408125877380e-01</leafValues></_>
        <_>
          <internalNodes>
            0 -1 100 243436798 465629133 -715593313 -1951343071
            2121076735 -1421347 -1949336737 -72982940</internalNodes>
          <leafValues>
            -2.9335635900497437e-01 2.6817837357521057e-01</leafValues></_>
        <_>
          <internalNodes>
            0 -1 63 -251936869 822101507 -2095868065 -79203421 215187455
            -2069434465 427777359 -821793009</internalNodes>
          <leafValues>
            -2.4702113866806030e-01 3.0799260735511780e-01</leafValues></_>
        <_>
          <internalNodes>
            0 -1 0 -204751158 -762834236 270139398 1694536327 -544761269
            150994955 -1010118649 -686499003</internalNodes>
          <leafValues>
            -2.2940479218959808e-01 3.3347424864768982e-01</leafValues></_>
        <_>
          <internalNodes>
            0 -1 58 -67177739 -18812690 921925119 -134746113 -266032
            -239057792 1945630687 -11538789</internalNodes>
          <leafValues>
            -1.7421947419643402e-01 4.5020300149917603e-01</leafValues></_>
        <_>
          <internalNodes>
            0 -1 108 -629208035 1796175197 -21054210 1242173303 -8655388
            -671371425 -421597480 -285229057</internalNodes>
          <leafValues>
            -2.5105839967727661e-01 3.1307250261306763e-01</leafValues></_>
        <_>
          <internalNodes>
            0 -1 97 -547424479 -773079105 -1109985893 -1089470497
            -1357924357 -1880385045 -722547233 -1935735723</internalNodes>
          <leafValues>
            -2.7520716190338135e-01 2.8236070275306702e-01</leafValues></_>
        <_>
          <internalNodes>
            0 -1 122 -15729169 -821141713 -215778465 -11796521
            -620494853 -16253361 -16024689 -15991457</internalNodes>
          <leafValues>
            -1.6265647113323212e-01 5.1088678836822510e-01</leafValues></_>
        <_>
          <internalNodes>
            0 -1 44 -1912553708 -81213871 -1644082690 -2194716 739352181
            -44241331 -83395079 -1353969856</internalNodes>
          <leafValues>
            -3.2419747114181519e-01 2.4169909954071045e-01</leafValues></_>
        <_>
          <internalNodes>
            0 -1 25 -298893449 -292336010 1283862287 -861000340
            1838034181 -566273707 -364208369 -8431721</internalNodes>
          <leafValues>
            -3.0019634962081909e-01 2.5542187690734863e-01</leafValues></_>
        <_>
          <internalNodes>
            0 -1 23 -1506261394 2132537976 -84216196 -1770329388
            1512729606 2122284758 -186845082 -152092964</internalNodes>
          <leafValues>
            -3.4651279449462891e-01 2.2539313137531281e-01</leafValues></_>
        <_>
          <internalNodes>
            0 -1 27 -158335441 -69206033 2050468424 -264503605
            1464276053 -134518955 -688130352 -134750337</internalNodes>
          <leafValues>
            -2.7222454547882080e-01 2.9158759117126465e-01</leafValues></_>
        <_>
          <internalNodes>
            0 -1 68 1171244463 923531187 -612387028 -1208484941
            -863648632 2054665302 -895237928 -83888654</internalNodes>
          <leafValues>
            -2.6663619279861450e-01 3.0222895741462708e-01</leafValues></_>
        <_>
          <internalNodes>
            0 -1 95 -1720779856 -1121699188 -140652971 -590518
            -1361592395 -23541031 287000996 -863044908</internalNodes>
          <leafValues>
            -2.9461741447448730e-01 2.6773619651794434e-01</leafValues></_>
        <_>
          <internalNodes>
            0 -1 13 -33641203 -1366393601 -612508254 -256970288
            -223676133 1771783935 -620757080 -1493844995</internalNodes>
          <leafValues>
            -3.3728593587875366e-01 2.3483304679393768e-01</leafValues></_>
        <_>
          <internalNodes>
            0 -1 101 -23284688 -574688612 -67127939 -39316232 -109265474
            -68880385 -3265654 -1658321902</internalNodes>
          <leafValues>
            -2.7120259404182434e-01 2.9486408829689026e-01</leafValues></_></weakClassifiers></_></stages>
  <features>
    <_>
      <rect>
        0 0 1 3</rect></_>
    <_>
      <rect>
        0 0 2 2</rect></_>
    <_>
      <rect>
        0 0 2 4</rect></_>
    <_>
      <rect>
        0 0 4 2</rect></_>
    <_>
      <rect>
        0 1 3 2</rect></_>
    <_>
      <rect>
        0 3 2 3</rect></_>
    <_>
      <rect>
        0 5 2 2</rect></_>
    <_>
      <rect>
        0 21 1 3</rect></_>
    <_>
      <rect>
        0 29 1 1</rect></_>
    <_>
      <rect>
        1 0 10 2</rect></_>
    <_>
      <rect>
        1 0 10 3</rect></_>
    <_>
      <rect>
        1 2 2 2</rect></_>
    <_>
      <rect>
        1 2 4 10</rect></_>
    <_>
      <rect>
        1 4 2 1</rect></_>
    <_>
      <rect>
        1 26 2 2</rect></_>
    <_>
      <rect>
        1 29 2 1</rect></_>
    <_>
      <rect>
        2 3 1 1</rect></_>
    <_>
      <rect>
        2 3 2 1</rect></_>
    <_>
      <rect>
        2 29 1 1</rect></_>
    <_>
      <rect>
        3 2 1 1</rect></_>
    <_>
      <rect>
        3 2 1 2</rect></_>
    <_>
      <rect>
        3 3 4 7</rect></_>
    <_>
      <rect>
        3 16 3 4</rect></_>
    <_>
      <rect>
        3 29 1 1</rect></_>
    <_>
      <rect>
        5 0 1 1</rect></_>
    <_>
      <rect>
        5 7 7 5</rect></_>
    <_>
      <rect>
        5 11 2 2</rect></_>
    <_>
      <rect>
        5 22 3 2</rect></_>
    <_>
      <rect>
        6 0 3 1</rect></_>
    <_>
      <rect>
        6 22 3 2</rect></_>
    <_>
      <rect>
        7 22 4 3</rect></_>
    <_>
      <rect>
        8 0 2 1</rect></_>
    <_>
      <rect>
        8 0 8 2</rect></_>
    <_>
      <rect>
        8 0 8 4</rect></_>
    <_>
      <rect>
        8 8 6 3</rect></_>
    <_>
      <rect>
        8 16 3 4</rect></_>
    <_>
      <rect>
        9 1 3 4</rect></_>
    <_>
      <rect>
        9 8 6 3</rect></_>
    <_>
      <rect>
        9 10 1 2</rect></_>
    <_>
      <rect>
        9 22 2 2</rect></_>
    <_>
      <rect>
        9 23 3 3</rect></_>
    <_>
      <rect>
        10 6 7 5</rect></_>
    <_>
      <rect>
        10 8 3 4</rect></_>
    <_>
      <rect>
        10 8 5 4</rect></_>
    <_>
      <rect>
        10 10 1 1</rect></_>
    <_>
      <rect>
        10 10 2 5</rect></_>
    <_>
      <rect>
        10 10 5 4</rect></_>
    <_>
      <rect>
        10 11 2 5</rect></_>
    <_>
      <rect>
        10 12 2 5</rect></_>
    <_>
      <rect>
        10 14 2 2</rect></_>
    <_>
      <rect>
        10 15 3 2</rect></_>
    <_>
      <rect>
        10 17 1 1</rect></_>
    <_>
      <rect>
        10 19 5 2</rect></_>
    <_>
      <rect>
        11 0 4 9</rect></_>
    <_>
      <rect>
        11 9 3 3</rect></_>
    <_>
      <rect>
        11 9 5 3</rect></_>
    <_>
      <rect>
        11 12 2 2</rect></_>
    <_>
      <rect>
        11 13 2 2</rect></_>
    <_>
      <rect>
        11 19 5 2</rect></_>
    <_>
      <rect>
        12 4 4 6</rect></_>
    <_>
      <rect>
        12 4 5 6</rect></_>
    <_>
      <rect>
        12 9 4 3</rect></_>
    <_>
      <rect>
        12 10 2 2</rect></_>
    <_>
      <rect>
        12 16 2 2</rect></_>
    <_>
      <rect>
        12 29 2 1</rect></_>
    <_>
      <rect>
        13 7 4 6</rect></_>
    <_>
      <rect>
        13 8 2 6</rect></_>
    <_>
      <rect>
        13 10 3 2</rect></_>
    <_>
      <rect>
        13 12 2 2</rect></_>
    <_>
      <rect>
        13 20 2 3</rect></_>
    <_>
      <rect>
        14 7 1 3</rect></_>
    <_>
      <rect>
        14 12 3 1</rect></_>
    <_>
      <rect>
        14 23 4 3</rect></_>
    <_>
      <rect>
        15 8 1 2</rect></_>
    <_>
      <rect>
        15 10 2 2</rect></_>
    <_>
      <rect>
        15 15 2 2</rect></_>
    <_>
      <rect>
        16 10 3 3</rect></_>
    <_>
      <rect>
        16 11 3 2</rect></_>
    <_>
      <rect>
        16 14 1 1</rect></_>
    <_>
      <rect>
        16 17 1 1</rect></_>
    <_>
      <rect>
        16 18 1 1</rect></_>
    <_>
      <rect>
        17 9 3 3</rect></_>
    <_>
      <rect>
        17 9 4 4</rect></_>
    <_>
      <rect>
        17 10 3 5</rect></_>
    <_>
      <rect>
        17 11 2 4</rect></_>
    <_>
      <rect>
        17 12 3 5</rect></_>
    <_>
      <rect>
        17 14 1 1</rect></_>
    <_>
      <rect>
        17 17 1 1</rect></_>
    <_>
      <rect>
        17 18 1 1</rect></_>
    <_>
      <rect>
        17 20 3 3</rect></_>
    <_>
      <rect>
        17 23 1 1</rect></_>
    <_>
      <rect>
        18 1 3 4</rect></_>
    <_>
      <rect>
        18 2 1 1</rect></_>
    <_>
      <rect>
        18 8 1 2</rect></_>
    <_>
      <rect>
        18 10 2 1</rect></_>
    <_>
      <rect>
        18 28 2 1</rect></_>
    <_>
      <rect>
        18 29 1 1</rect></_>
    <_>
      <rect>
        19 7 1 3</rect></_>
    <_>
      <rect>
        19 12 2 2</rect></_>
    <_>
      <rect>
        19 12 2 3</rect></_>
    <_>
      <rect>
        19 13 2 1</rect></_>
    <_>
      <rect>
        19 22 1 1</rect></_>
    <_>
      <rect>
        20 11 2 5</rect></_>
    <_>
      <rect>
        20 13 2 3</rect></_>
    <_>
      <rect>
        20 14 2 2</rect></_>
    <_>
      <rect>
        20 24 2 2</rect></_>
    <_>
      <rect>
        21 0 3 1</rect></_>
    <_>
      <rect>
        21 1 1 1</rect></_>
    <_>
      <rect>
        21 3 3 4</rect></_>
    <_>
      <rect>
        22 0 2 1</rect></_>
    <_>
      <rect>
        22 8 3 3</rect></_>
    <_>
      <rect>
        22 22 2 3</rect></_>
    <_>
      <rect>
        23 2 3 8</rect></_>
    <_>
      <rect>
        23 10 1 1</rect></_>
    <_>
      <rect>
        23 16 3 4</rect></_>
    <_>
      <rect>
        24 19 1 1</rect></_>
    <_>
      <rect>
        24 21 2 2</rect></_>
    <_>
      <rect>
        24 22 1 1</rect></_>
    <_>
      <rect>
        25 0 2 2</rect></_>
    <_>
      <rect>
        25 10 2 3</rect></_>
    <_>
      <rect>
        26 0 2 2</rect></_>
    <_>
      <rect>
        26 18 2 3</rect></_>
    <_>
      <rect>
        26 29 2 1</rect></_>
    <_>
      <rect>
        28 0 1 1</rect></_>
    <_>
      <rect>
        28 1 1 1</rect></_>
    <_>
      <rect>
        29 0 1 1</rect></_>
    <_>
      <rect>
        29 0 1 3</rect></_>
    <_>
      <rect>
        29 1 1 2</rect></_>
    <_>
      <rect>
        29 3 1 1</rect></_>
    <_>
      <rect>
        29 29 1 1</rect></_></features></cascade>
</opencv_storage>
