<?xml version="1.0"?>
<opencv_storage>
<!-- Created using Computer Vision Toolbox(tm) for MATLAB(R) -->
<!-- Version 23.2.0.2515942 (R2023b) Update 7 -->
<!-- Compatible with OpenCV 4.5 -->
<cascade>
  <stageType>BOOST</stageType>
  <featureType>LBP</featureType>
  <height>32</height>
  <width>32</width>
  <stageParams>
    <boostType>GAB</boostType>
    <minHitRate>9.9500000476837158e-01</minHitRate>
    <maxFalseAlarm>1.0000000149011612e-01</maxFalseAlarm>
    <weightTrimRate>9.4999999999999996e-01</weightTrimRate>
    <maxDepth>1</maxDepth>
    <maxWeakCount>100</maxWeakCount></stageParams>
  <featureParams>
    <maxCatCount>256</maxCatCount>
    <featSize>1</featSize></featureParams>
  <stageNum>5</stageNum>
  <stages>
    <!-- stage 0 -->
    <_>
      <maxWeakCount>9</maxWeakCount>
      <stageThreshold>-1.6112376451492310e+00</stageThreshold>
      <weakClassifiers>
        <_>
          <internalNodes>
            0 -1 40 -547374145 1595344663 -1073764165 -12637637
            -1945333825 -816865441 -1979741505 -21585</internalNodes>
          <leafValues>
            -8.5077124834060669e-01 5.8095389604568481e-01</leafValues></_>
        <_>
          <internalNodes>
            0 -1 13 1088463392 -65537 20592 -1 -1 -1 -1048577 -16385</internalNodes>
          <leafValues>
            -8.2377856969833374e-01 5.6819742918014526e-01</leafValues></_>
        <_>
          <internalNodes>
            0 -1 67 -286332416 -17391584 -454252000 -22741 -355554646
            -69277636 -20561 -17</internalNodes>
          <leafValues>
            -7.1573537588119507e-01 5.5225372314453125e-01</leafValues></_>
        <_>
          <internalNodes>
            0 -1 15 -269484033 -806752273 -1 -1 -1 1174405119 -134219785
            -134217729</internalNodes>
          <leafValues>
            -5.1636952161788940e-01 6.1683762073516846e-01</leafValues></_>
        <_>
          <internalNodes>
            0 -1 88 1073794248 1901092853 2036338632 -11460800 82052495
            937840383 -68482133 -45217</internalNodes>
          <leafValues>
            -6.1720973253250122e-01 5.0201672315597534e-01</leafValues></_>
        <_>
          <internalNodes>
            0 -1 4 -1060311858 -1059003774 -997932308 -930814258
            -724303915 1349899333 -539107636 -707266709</internalNodes>
          <leafValues>
            -5.8351182937622070e-01 4.2941090464591980e-01</leafValues></_>
        <_>
          <internalNodes>
            0 -1 39 -4201328 838809907 -1073844225 867936699 -268499729
            1031798527 -287339314 800800319</internalNodes>
          <leafValues>
            -5.7112079858779907e-01 3.8045141100883484e-01</leafValues></_>
        <_>
          <internalNodes>
            0 -1 118 -25230025 -8950681 -151527937 -222560641 -145072779
            -413163553 -1224737057 -16777345</internalNodes>
          <leafValues>
            -3.9536523818969727e-01 5.5336904525756836e-01</leafValues></_>
        <_>
          <internalNodes>
            0 -1 65 -234901846 1060359999 2002690216 -1615615328
            1375194303 2011168735 1908351112 -1070462</internalNodes>
          <leafValues>
            -4.9682098627090454e-01 4.4309189915657043e-01</leafValues></_></weakClassifiers></_>
    <!-- stage 1 -->
    <_>
      <maxWeakCount>19</maxWeakCount>
      <stageThreshold>-1.6605149507522583e+00</stageThreshold>
      <weakClassifiers>
        <_>
          <internalNodes>
            0 -1 34 -8388609 -15466625 -549483845 -12867013 -840966145
            -545260545 -536900933 -545281365</internalNodes>
          <leafValues>
            -7.7724403142929077e-01 4.0547046065330505e-01</leafValues></_>
        <_>
          <internalNodes>
            0 -1 42 -178915968 -1145065809 -169938696 -1077959489
            -712638530 -1145065537 -1249067538 -1079005521</internalNodes>
          <leafValues>
            -6.1648255586624146e-01 4.0499636530876160e-01</leafValues></_>
        <_>
          <internalNodes>
            0 -1 1 -838860801 -839913489 -234883073 -1 -234882305
            -541073665 2013262783 -1</internalNodes>
          <leafValues>
            -4.3775561451911926e-01 5.5887091159820557e-01</leafValues></_>
        <_>
          <internalNodes>
            0 -1 79 -67437574 -73678933 -53345 -4521214 1945830143
            2080332799 1946092287 2147420095</internalNodes>
          <leafValues>
            -5.2327823638916016e-01 4.8374405503273010e-01</leafValues></_>
        <_>
          <internalNodes>
            0 -1 94 -792670518 -799752050 -1003299158 -183271294
            -570487670 -539555574 -67379285 -67401045</internalNodes>
          <leafValues>
            -4.7221061587333679e-01 4.7509023547172546e-01</leafValues></_>
        <_>
          <internalNodes>
            0 -1 116 -138350390 -145371135 -268271486 -231485437
            -536155478 -822083574 -89589525 2013248495</internalNodes>
          <leafValues>
            -3.8672342896461487e-01 5.4366415739059448e-01</leafValues></_>
        <_>
          <internalNodes>
            0 -1 50 369086637 832565687 -1279262817 867939259 524781706
            958091711 -1162114390 868203451</internalNodes>
          <leafValues>
            -4.9804171919822693e-01 3.8450795412063599e-01</leafValues></_>
        <_>
          <internalNodes>
            0 -1 48 1346437060 -566170668 525262605 -2883585 -939467824
            -665792044 -49610785 -1025</internalNodes>
          <leafValues>
            -3.5414493083953857e-01 5.2376687526702881e-01</leafValues></_>
        <_>
          <internalNodes>
            0 -1 68 -2425144 -16848658 -3876956 -16974082 -2381056
            -34673948 -131232 -5430</internalNodes>
          <leafValues>
            -5.3553813695907593e-01 3.3016017079353333e-01</leafValues></_>
        <_>
          <internalNodes>
            0 -1 17 -638584625 -36712273 -252196702 -67649345 -927086385
            1896579151 -122952985 2013258735</internalNodes>
          <leafValues>
            -3.4209311008453369e-01 4.8951151967048645e-01</leafValues></_>
        <_>
          <internalNodes>
            0 -1 55 2013244091 1577052911 1610591163 1174383334
            2004876203 -36873 2004351530 1560259234</internalNodes>
          <leafValues>
            -4.2839711904525757e-01 4.1190302371978760e-01</leafValues></_>
        <_>
          <internalNodes>
            0 -1 102 -1048608 -72812640 1846263840 -1456736600
            1604187264 -872351821 1101758496 -1011090517</internalNodes>
          <leafValues>
            -4.4078788161277771e-01 3.5237461328506470e-01</leafValues></_>
        <_>
          <internalNodes>
            0 -1 113 -134516222 -9219265 857505482 1381200895 -79986176
            -748216714 -76097798 -233570565</internalNodes>
          <leafValues>
            -3.9131984114646912e-01 3.4753832221031189e-01</leafValues></_>
        <_>
          <internalNodes>
            0 -1 35 1430386128 1432417344 1567569151 -37750373
            1964236731 1430362048 389019555 -474222709</internalNodes>
          <leafValues>
            -4.0447154641151428e-01 3.7603446841239929e-01</leafValues></_>
        <_>
          <internalNodes>
            0 -1 11 -69746449 -787758936 16187456 1945829479 -1073250069
            131194 -2085126069 -138415157</internalNodes>
          <leafValues>
            -2.0900636911392212e-01 6.2134939432144165e-01</leafValues></_>
        <_>
          <internalNodes>
            0 -1 59 2085499600 -14210309 135212571 657138236 -1610945903
            -155868997 83827259 255795995</internalNodes>
          <leafValues>
            -3.5838064551353455e-01 3.7676331400871277e-01</leafValues></_>
        <_>
          <internalNodes>
            0 -1 20 -186654129 1349675130 1747503250 1082190522
            -163323114 807771735 -50334870 -260571421</internalNodes>
          <leafValues>
            -3.1771144270896912e-01 3.9163324236869812e-01</leafValues></_>
        <_>
          <internalNodes>
            0 -1 72 -210012229 998975402 -7344229 -1079316694 1878478078
            536830975 1266051951 803669543</internalNodes>
          <leafValues>
            -4.2372563481330872e-01 2.9645821452140808e-01</leafValues></_>
        <_>
          <internalNodes>
            0 -1 10 -37814529 -187695362 1526330079 -764160001
            -144706613 -211963979 -155190113 -87059717</internalNodes>
          <leafValues>
            -2.4697896838188171e-01 5.3432637453079224e-01</leafValues></_></weakClassifiers></_>
    <!-- stage 2 -->
    <_>
      <maxWeakCount>24</maxWeakCount>
      <stageThreshold>-1.6886794567108154e+00</stageThreshold>
      <weakClassifiers>
        <_>
          <internalNodes>
            0 -1 8 -268455953 -1 -4353 -1 -1 -1 -1 -1</internalNodes>
          <leafValues>
            -7.6309692859649658e-01 2.7975317835807800e-01</leafValues></_>
        <_>
          <internalNodes>
            0 -1 51 -20481 -11161835 -21569 -8934601 205897727
            -808452257 -21569 -21505</internalNodes>
          <leafValues>
            -5.6859391927719116e-01 4.8712715506553650e-01</leafValues></_>
        <_>
          <internalNodes>
            0 -1 7 -1342177281 -268435457 -33554561 -1 -134217729
            -83886081 -134219913 -167772169</internalNodes>
          <leafValues>
            -4.3277680873870850e-01 5.8795863389968872e-01</leafValues></_>
        <_>
          <internalNodes>
            0 -1 53 893334832 1069530943 -268435521 -1342177345
            2097018109 -1073741825 -318771457 -1360003073</internalNodes>
          <leafValues>
            -5.2761495113372803e-01 3.7940591573715210e-01</leafValues></_>
        <_>
          <internalNodes>
            0 -1 83 -69884 -285802497 -65604 -16842754 -139 -131073
            -131308 -196868</internalNodes>
          <leafValues>
            -5.4728430509567261e-01 3.2896086573600769e-01</leafValues></_>
        <_>
          <internalNodes>
            0 -1 61 1602219951 2004877311 -805985622 1744282282
            1442795007 2139095039 1577012396 -4434</internalNodes>
          <leafValues>
            -4.2643517255783081e-01 3.6173290014266968e-01</leafValues></_>
        <_>
          <internalNodes>
            0 -1 104 -253 -167772297 -329318529 -178782369 -139222496
            1945626167 -1507679710 -273678401</internalNodes>
          <leafValues>
            -3.0595383048057556e-01 4.9116447567939758e-01</leafValues></_>
        <_>
          <internalNodes>
            0 -1 118 -57473 -406847497 -17829889 -353435761 -172161
            -524325 -69634 -16842753</internalNodes>
          <leafValues>
            -2.9893076419830322e-01 4.7743389010429382e-01</leafValues></_>
        <_>
          <internalNodes>
            0 -1 91 49680127 2079389691 -20609 -938445 2146373631 -32769
            -271618065 -37033</internalNodes>
          <leafValues>
            -4.1180449724197388e-01 3.7120169401168823e-01</leafValues></_>
        <_>
          <internalNodes>
            0 -1 47 -856503076 -21570051 -89457218 -1095041153
            1479558232 -121708929 -332366612 -85262593</internalNodes>
          <leafValues>
            -4.1461387276649475e-01 3.2210659980773926e-01</leafValues></_>
        <_>
          <internalNodes>
            0 -1 24 -268503041 -272891905 -71320645 -4194309 1339916287
            -285212675 -675940937 -268435713</internalNodes>
          <leafValues>
            -2.7005574107170105e-01 4.8419266939163208e-01</leafValues></_>
        <_>
          <internalNodes>
            0 -1 66 -1 -16611 -1107296257 -4145 -18874437 -17825873
            -84427145 -1997870590</internalNodes>
          <leafValues>
            -2.6186603307723999e-01 4.7166925668716431e-01</leafValues></_>
        <_>
          <internalNodes>
            0 -1 90 -38275280 54560 -1108582960 -1078657200 -262220
            421787057 -805341707 -779</internalNodes>
          <leafValues>
            -3.9426106214523315e-01 3.0138194561004639e-01</leafValues></_>
        <_>
          <internalNodes>
            0 -1 10 -1157627937 -16777217 -131073 -18882637 -8388609
            -1073774785 -83886083 -50340099</internalNodes>
          <leafValues>
            -2.4653361737728119e-01 4.9998474121093750e-01</leafValues></_>
        <_>
          <internalNodes>
            0 -1 45 -176167772 -684607728 -644 -33555460 -445254159
            -50989132 -1241517584 -705302352</internalNodes>
          <leafValues>
            -4.1164472699165344e-01 3.2497239112854004e-01</leafValues></_>
        <_>
          <internalNodes>
            0 -1 89 1356134398 -724173057 2080309224 -1293923238
            -789541684 -789006374 -1538 1073790994</internalNodes>
          <leafValues>
            -4.5153394341468811e-01 2.4903199076652527e-01</leafValues></_>
        <_>
          <internalNodes>
            0 -1 96 -524737 2031484447 -75518217 -755322978 -12853435
            -8389057 -84207169 -1112342542</internalNodes>
          <leafValues>
            -3.0826905369758606e-01 3.4298732876777649e-01</leafValues></_>
        <_>
          <internalNodes>
            0 -1 33 -915457089 -989878315 -536892485 182430418
            -938701045 -537961079 -16078069 -1140905717</internalNodes>
          <leafValues>
            -3.8414493203163147e-01 2.9682812094688416e-01</leafValues></_>
        <_>
          <internalNodes>
            0 -1 31 -901791010 -1619167809 -353317158 -232724898
            1283277894 1600589429 -234419898 -99979414</internalNodes>
          <leafValues>
            -4.0317460894584656e-01 2.4835836887359619e-01</leafValues></_>
        <_>
          <internalNodes>
            0 -1 9 -82065 -1364263009 -16779286 -16843794 2147417957
            1845493629 -167805344 -426461275</internalNodes>
          <leafValues>
            -4.3908792734146118e-01 2.3415485024452209e-01</leafValues></_>
        <_>
          <internalNodes>
            0 -1 80 2060515898 1043398434 -50331851 -72144384 75448570
            2147463167 1777811039 2042320879</internalNodes>
          <leafValues>
            -4.7205814719200134e-01 2.1778169274330139e-01</leafValues></_>
        <_>
          <internalNodes>
            0 -1 97 787483957 1064984447 -1887993865 -1224958089
            -4296395 -8425498 -1091223706 -1091010779</internalNodes>
          <leafValues>
            -4.2582848668098450e-01 2.2461645305156708e-01</leafValues></_>
        <_>
          <internalNodes>
            0 -1 106 -596109056 -669713445 -849764579 -843219121
            -54726888 -1140918293 -1113805944 -2000110948</internalNodes>
          <leafValues>
            -3.7622177600860596e-01 2.5635188817977905e-01</leafValues></_>
        <_>
          <internalNodes>
            0 -1 28 -272715889 -826793231 -4575453 -273150294 -298549387
            1073627135 -545358467 -694448</internalNodes>
          <leafValues>
            -3.3910149335861206e-01 2.9154297709465027e-01</leafValues></_></weakClassifiers></_>
    <!-- stage 3 -->
    <_>
      <maxWeakCount>31</maxWeakCount>
      <stageThreshold>-1.6413211822509766e+00</stageThreshold>
      <weakClassifiers>
        <_>
          <internalNodes>
            0 -1 29 -4305 2147483583 -51201 -1 -12289 -1 -1 -1</internalNodes>
          <leafValues>
            -7.3231190443038940e-01 1.5405745804309845e-01</leafValues></_>
        <_>
          <internalNodes>
            0 -1 12 -1073741825 -285212673 -1 -1 -1 -1 -134219785 -1</internalNodes>
          <leafValues>
            -4.4852888584136963e-01 4.8063668608665466e-01</leafValues></_>
        <_>
          <internalNodes>
            0 -1 56 -32897 -1077952577 -1 -1077936129 -45364 -1073741825
            -16790308 -1358954497</internalNodes>
          <leafValues>
            -3.8387367129325867e-01 4.9511012434959412e-01</leafValues></_>
        <_>
          <internalNodes>
            0 -1 77 -50528259 -196609 -1 -21310020 -3 -131073 -4
            -1095184992</internalNodes>
          <leafValues>
            -3.5661253333091736e-01 4.6514600515365601e-01</leafValues></_>
        <_>
          <internalNodes>
            0 -1 95 -1060852050 -170590209 -65538 -3080230 -61521 -49217
            -114694 -8356088</internalNodes>
          <leafValues>
            -5.1391422748565674e-01 3.0540031194686890e-01</leafValues></_>
        <_>
          <internalNodes>
            0 -1 62 -580931665 1595137827 -10639190 -16732246 1442785791
            1568669695 -67165526 -21846</internalNodes>
          <leafValues>
            -4.7194620966911316e-01 2.9897734522819519e-01</leafValues></_>
        <_>
          <internalNodes>
            0 -1 74 -285282388 -319885826 -65572 -285429764 -538985084
            -268436481 -81996 -65540</internalNodes>
          <leafValues>
            -4.5160263776779175e-01 2.6806449890136719e-01</leafValues></_>
        <_>
          <internalNodes>
            0 -1 3 -452989201 4386558 1173734916 16515598 1966604159
            1884782463 -134217889 -234885121</internalNodes>
          <leafValues>
            -3.8884416222572327e-01 3.1694510579109192e-01</leafValues></_>
        <_>
          <internalNodes>
            0 -1 111 -33161 -8388993 -1703966465 1929377791 -137 -34177
            -153286648 -67108865</internalNodes>
          <leafValues>
            -2.8117766976356506e-01 4.0303602814674377e-01</leafValues></_>
        <_>
          <internalNodes>
            0 -1 86 -16393 -21505 -335544321 -285249541 -16385 -1 -16385
            -302554080</internalNodes>
          <leafValues>
            -2.5668138265609741e-01 4.5924487709999084e-01</leafValues></_>
        <_>
          <internalNodes>
            0 -1 44 1997649664 -1214280769 -8388836 -1073741830
            1897265141 -1073742353 -35816292 -1912762660</internalNodes>
          <leafValues>
            -4.0215206146240234e-01 2.7481579780578613e-01</leafValues></_>
        <_>
          <internalNodes>
            0 -1 10 -1 -16777281 -16842753 -58720257 -129 -17 -4194313
            -16777737</internalNodes>
          <leafValues>
            -2.5222852826118469e-01 4.2280146479606628e-01</leafValues></_>
        <_>
          <internalNodes>
            0 -1 43 575546117 -538014396 570372927 -528417 -1364263028
            -292910267 -1074003969 -29378121</internalNodes>
          <leafValues>
            -4.4455885887145996e-01 2.4572026729583740e-01</leafValues></_>
        <_>
          <internalNodes>
            0 -1 112 -1051165 -355807585 -83886336 -288428118 2011166515
            1189543925 1963290912 -168298633</internalNodes>
          <leafValues>
            -3.8894352316856384e-01 2.8397133946418762e-01</leafValues></_>
        <_>
          <internalNodes>
            0 -1 38 -268435617 -352583733 -1880683251 -1898999987
            -1124401358 -1434788230 804730418 -1347439777</internalNodes>
          <leafValues>
            -3.1619942188262939e-01 3.0232155323028564e-01</leafValues></_>
        <_>
          <internalNodes>
            0 -1 117 -64157 -231479689 -286785809 -1964579481 -25987211
            -1074302413 -42284291 -502202754</internalNodes>
          <leafValues>
            -3.7151768803596497e-01 2.5976806879043579e-01</leafValues></_>
        <_>
          <internalNodes>
            0 -1 93 67115056 137404132 804648445 -1073754115 993476475
            -1075838987 784023226 -1342177571</internalNodes>
          <leafValues>
            -4.3937039375305176e-01 2.2635601460933685e-01</leafValues></_>
        <_>
          <internalNodes>
            0 -1 32 704783888 -1103429776 -1073795087 -10429068
            247441085 -1078460421 796917621 -1073988364</internalNodes>
          <leafValues>
            -4.9704164266586304e-01 1.7309448122978210e-01</leafValues></_>
        <_>
          <internalNodes>
            0 -1 26 -135856298 -4393216 -831623990 -290805206 -311951497
            -580954288 1362620367 1313292359</internalNodes>
          <leafValues>
            -4.2934364080429077e-01 2.0540986955165863e-01</leafValues></_>
        <_>
          <internalNodes>
            0 -1 0 -1414529113 -5308806 -268447753 -11537626 1489466967
            -1052745 -407249101 -143132873</internalNodes>
          <leafValues>
            -2.7684891223907471e-01 3.2842695713043213e-01</leafValues></_>
        <_>
          <internalNodes>
            0 -1 87 -298586889 -1368719369 -37748737 -309657625
            523292663 -302514186 -13533195 -403229327</internalNodes>
          <leafValues>
            -3.1450366973876953e-01 3.0387595295906067e-01</leafValues></_>
        <_>
          <internalNodes>
            0 -1 101 708196112 1761230846 -1048710 -218960261 -67108876
            -67174438 -257950508 -521997638</internalNodes>
          <leafValues>
            -4.1594052314758301e-01 2.1686667203903198e-01</leafValues></_>
        <_>
          <internalNodes>
            0 -1 49 -655690822 1107236084 -1829724400 1089846173
            -71681094 -33876491 -1157906513 2063466107</internalNodes>
          <leafValues>
            -3.6894547939300537e-01 2.4335584044456482e-01</leafValues></_>
        <_>
          <internalNodes>
            0 -1 36 -1484739589 -1347770197 -168296897 -14 -1343520769
            -1897466421 -546341787 -4263435</internalNodes>
          <leafValues>
            -2.7207902073860168e-01 3.1409350037574768e-01</leafValues></_>
        <_>
          <internalNodes>
            0 -1 23 -1024471441 1123020542 -1359130665 -286331424
            1078417267 1691346927 -404761838 -101746878</internalNodes>
          <leafValues>
            -3.3541208505630493e-01 2.5584399700164795e-01</leafValues></_>
        <_>
          <internalNodes>
            0 -1 75 136580469 928331447 -38062081 -1080057927 1040021885
            -131073 -285274129 -1359008210</internalNodes>
          <leafValues>
            -2.5742784142494202e-01 3.2777336239814758e-01</leafValues></_>
        <_>
          <internalNodes>
            0 -1 82 -20696 -1364283478 772276224 -1432278001 -671675120
            2100960308 2002456329 -4206597</internalNodes>
          <leafValues>
            -3.7673977017402649e-01 2.2299186885356903e-01</leafValues></_>
        <_>
          <internalNodes>
            0 -1 58 -537198602 -83931425 -6291689 1065292735 -575038534
            -1462491141 -1349123557 189990438</internalNodes>
          <leafValues>
            -3.0348789691925049e-01 2.8170734643936157e-01</leafValues></_>
        <_>
          <internalNodes>
            0 -1 114 -168038913 -35656615 -88614670 -21569629
            -1619830449 -288920231 -50665227 2060906494</internalNodes>
          <leafValues>
            -2.8440639376640320e-01 3.0881482362747192e-01</leafValues></_>
        <_>
          <internalNodes>
            0 -1 78 788344093 528432767 1795059711 -1628454913 -123275
            -33788291 -1633353864 -1089458360</internalNodes>
          <leafValues>
            -3.5885128378868103e-01 2.5169074535369873e-01</leafValues></_>
        <_>
          <internalNodes>
            0 -1 103 -36700493 -1356007918 2132146640 -575144206
            -576784449 -847249421 -839920139 -576719361</internalNodes>
          <leafValues>
            -2.1990795433521271e-01 3.7261033058166504e-01</leafValues></_></weakClassifiers></_>
    <!-- stage 4 -->
    <_>
      <maxWeakCount>40</maxWeakCount>
      <stageThreshold>-1.0996683835983276e+00</stageThreshold>
      <weakClassifiers>
        <_>
          <internalNodes>
            0 -1 37 -578814465 863240191 1610473470 926133930 -570436097
            -545259521 1577010346 1597999786</internalNodes>
          <leafValues>
            -5.3842508792877197e-01 3.0698972940444946e-01</leafValues></_>
        <_>
          <internalNodes>
            0 -1 105 -235 -176160769 -1073893457 -167772161 -8405219
            2138963319 -1077953016 -16842786</internalNodes>
          <leafValues>
            -3.3841893076896667e-01 4.2369228601455688e-01</leafValues></_>
        <_>
          <internalNodes>
            0 -1 18 -1343225857 -1 -1051785 -1048658 -423624705
            -141557793 -168827017 -1</internalNodes>
          <leafValues>
            -2.8436392545700073e-01 4.8898938298225403e-01</leafValues></_>
        <_>
          <internalNodes>
            0 -1 41 -707660299 -170592780 -1616147541 -169348113
            -842990691 -33 -1618301013 -5244929</internalNodes>
          <leafValues>
            -3.5179778933525085e-01 4.2542958259582520e-01</leafValues></_>
        <_>
          <internalNodes>
            0 -1 71 -247411507 -12211059 -3437313 -32597 4276479
            -18416641 1929322751 -201383169</internalNodes>
          <leafValues>
            -3.7983867526054382e-01 3.2015475630760193e-01</leafValues></_>
        <_>
          <internalNodes>
            0 -1 27 -16778497 -83890369 -84738306 33619839 -92279937
            -13363625 -18940161 -260837377</internalNodes>
          <leafValues>
            -3.1374624371528625e-01 3.5976624488830566e-01</leafValues></_>
        <_>
          <internalNodes>
            0 -1 14 -234884865 -10001 -788561682 -17926 -788534673
            -243816193 -3595 2012741623</internalNodes>
          <leafValues>
            -2.9848244786262512e-01 3.6885130405426025e-01</leafValues></_>
        <_>
          <internalNodes>
            0 -1 98 -272957451 -1082851339 -4333571 -4683 -1073807371
            -65537 -637577740 -174603</internalNodes>
          <leafValues>
            -2.5257858633995056e-01 4.0587672591209412e-01</leafValues></_>
        <_>
          <internalNodes>
            0 -1 25 1711275774 1339025358 1073477617 267363083 889189877
            2004877311 1342142197 1339029487</internalNodes>
          <leafValues>
            -3.7760290503501892e-01 2.6749539375305176e-01</leafValues></_>
        <_>
          <internalNodes>
            0 -1 85 1071595391 -1078476801 2010591231 -729129 -37781505
            -2686993 -4734977 -1507330</internalNodes>
          <leafValues>
            -2.7016434073448181e-01 3.5480335354804993e-01</leafValues></_>
        <_>
          <internalNodes>
            0 -1 115 -4985085 -277613753 -231037958 -357303425 -21243648
            -269255825 -71631874 1728049023</internalNodes>
          <leafValues>
            -2.9949247837066650e-01 3.0790290236473083e-01</leafValues></_>
        <_>
          <internalNodes>
            0 -1 52 -1344327913 -1344295147 -1110175945 -38170633
            -1929405312 -1931936048 -50483265 -1142965273</internalNodes>
          <leafValues>
            -3.3388009667396545e-01 2.7818366885185242e-01</leafValues></_>
        <_>
          <internalNodes>
            0 -1 73 -1035278846 -1034959067 -827330942 -825253370
            -1073481214 -1035469756 -836507133 -808467985</internalNodes>
          <leafValues>
            -3.7874123454093933e-01 2.1982762217521667e-01</leafValues></_>
        <_>
          <internalNodes>
            0 -1 100 1685916733 1599549207 -1463060737 -1185579009
            -14084 -33841605 -319103748 -352649234</internalNodes>
          <leafValues>
            -2.6759243011474609e-01 3.1436970829963684e-01</leafValues></_>
        <_>
          <internalNodes>
            0 -1 21 -306382337 -806514371 -171921184 -545261071
            -855703553 -1915295025 -790829836 2147483637</internalNodes>
          <leafValues>
            -2.8188917040824890e-01 3.0080834031105042e-01</leafValues></_>
        <_>
          <internalNodes>
            0 -1 84 -6307971 2105016287 2111700862 -1644208656
            -455475467 98922229 -453653260 83227844</internalNodes>
          <leafValues>
            -4.0900671482086182e-01 2.1519277989864349e-01</leafValues></_>
        <_>
          <internalNodes>
            0 -1 109 1915484802 3145856 891033600 151357450 -79955536
            -1192842584 151298192 -1882194213</internalNodes>
          <leafValues>
            -3.5403275489807129e-01 2.3909035325050354e-01</leafValues></_>
        <_>
          <internalNodes>
            0 -1 92 -800000930 1423129695 -244311213 2031288410
            1074060288 -36621837 -525057 -136892738</internalNodes>
          <leafValues>
            -3.5328519344329834e-01 2.3651686310768127e-01</leafValues></_>
        <_>
          <internalNodes>
            0 -1 46 107095588 -285412357 -26476548 -620828238 -34344971
            -302272844 -318786828 -858896</internalNodes>
          <leafValues>
            -3.7594071030616760e-01 2.0995147526264191e-01</leafValues></_>
        <_>
          <internalNodes>
            0 -1 99 -2164865 -109589511 -314073097 -2005012739 -2409378
            -1205367633 -67371011 -1678141713</internalNodes>
          <leafValues>
            -2.2651639580726624e-01 3.7768229842185974e-01</leafValues></_>
        <_>
          <internalNodes>
            0 -1 30 -364860416 -557400512 -548356239 -543119504
            2071239970 -1347946521 -1149772441 -2816735</internalNodes>
          <leafValues>
            -3.5043206810951233e-01 2.4098303914070129e-01</leafValues></_>
        <_>
          <internalNodes>
            0 -1 5 -33554945 -167776273 -808456209 -536875065 -201347585
            2112749970 -38273057 -33620225</internalNodes>
          <leafValues>
            -1.4748132228851318e-01 5.5715048313140869e-01</leafValues></_>
        <_>
          <internalNodes>
            0 -1 110 -1074266307 -1904388753 -1074023489 -1644186129
            -1277250257 -142737537 -1073758273 -1392640069</internalNodes>
          <leafValues>
            -2.2728246450424194e-01 3.8440379500389099e-01</leafValues></_>
        <_>
          <internalNodes>
            0 -1 69 -621758480 -134598657 1064968061 -1149288465 -17736
            -84345160 -581990 -1346425154</internalNodes>
          <leafValues>
            -2.2408999502658844e-01 3.8671118021011353e-01</leafValues></_>
        <_>
          <internalNodes>
            0 -1 64 -827047937 2130451967 -237847586 -1167055746
            -223064580 -536877058 -25281604 -18415620</internalNodes>
          <leafValues>
            -2.8314536809921265e-01 2.8777837753295898e-01</leafValues></_>
        <_>
          <internalNodes>
            0 -1 22 -421552261 -1367683504 -555831513 779496575 -7407330
            -1058644995 -288559602 -53723865</internalNodes>
          <leafValues>
            -3.1633085012435913e-01 2.4686133861541748e-01</leafValues></_>
        <_>
          <internalNodes>
            0 -1 108 -419432653 757851075 1685579024 -521804278
            536835583 12976088 1161655409 -705300537</internalNodes>
          <leafValues>
            -3.1155407428741455e-01 2.3858299851417542e-01</leafValues></_>
        <_>
          <internalNodes>
            0 -1 63 922153450 15773692 1126176712 -244287518 1346633695
            15793546 1441920474 1951432683</internalNodes>
          <leafValues>
            -4.5125940442085266e-01 1.6662316024303436e-01</leafValues></_>
        <_>
          <internalNodes>
            0 -1 16 -1879331537 -46072265 -1111513601 -237764765
            -705200641 -87376003 -1088265 1938463735</internalNodes>
          <leafValues>
            -2.6303845643997192e-01 3.0736699700355530e-01</leafValues></_>
        <_>
          <internalNodes>
            0 -1 57 -397434877 -907061795 548783681 -855771937
            -1172113569 1605393765 -44830158 -585113329</internalNodes>
          <leafValues>
            -2.6091510057449341e-01 3.0838835239410400e-01</leafValues></_>
        <_>
          <internalNodes>
            0 -1 76 -1095745539 -1145426953 -147013633 1027151613
            -71385156 -1108708684 -1619456514 -1346752983</internalNodes>
          <leafValues>
            -2.3779663443565369e-01 3.2974204421043396e-01</leafValues></_>
        <_>
          <internalNodes>
            0 -1 119 -3743870 -1492975870 -277941790 -4064286 -540353070
            -45617278 -641467169 -175636541</internalNodes>
          <leafValues>
            -2.3108695447444916e-01 3.4389892220497131e-01</leafValues></_>
        <_>
          <internalNodes>
            0 -1 81 -826496992 16163823 -1342493948 -1359171602
            -251971276 1962899423 -34131164 -402657497</internalNodes>
          <leafValues>
            -4.0305250883102417e-01 2.0315939188003540e-01</leafValues></_>
        <_>
          <internalNodes>
            0 -1 70 651955509 -1410965507 -35668481 -71567937
            -1382212235 -37183553 -337672851 -1094959876</internalNodes>
          <leafValues>
            -3.5111790895462036e-01 2.2297884523868561e-01</leafValues></_>
        <_>
          <internalNodes>
            0 -1 19 -17896357 844234295 -799347702 812836402 -152449450
            1417147253 -248796 -262669065</internalNodes>
          <leafValues>
            -3.2187044620513916e-01 2.4358506500720978e-01</leafValues></_>
        <_>
          <internalNodes>
            0 -1 6 -1661381412 956153023 -1130234196 2094988479
            -122065676 1487498612 -177341219 -708968971</internalNodes>
          <leafValues>
            -2.9056343436241150e-01 2.6673781871795654e-01</leafValues></_>
        <_>
          <internalNodes>
            0 -1 60 -1261697799 -1256270436 783068947 -1610947567
            -21480527 -166700256 -1092863076 -1170707139</internalNodes>
          <leafValues>
            -3.1984192132949829e-01 2.5422108173370361e-01</leafValues></_>
        <_>
          <internalNodes>
            0 -1 107 -1575029484 215936990 1727723623 -2051623217
            2027246661 -1763797386 2039929861 958624627</internalNodes>
          <leafValues>
            -4.5799294114112854e-01 1.6675141453742981e-01</leafValues></_>
        <_>
          <internalNodes>
            0 -1 2 -474288145 -319885336 -201740358 1877793190
            1172274663 250999805 2006520949 -742427401</internalNodes>
          <leafValues>
            -4.2973238229751587e-01 1.7495641112327576e-01</leafValues></_>
        <_>
          <internalNodes>
            0 -1 54 2107381520 1035285311 -810619591 -816911431
            1573681645 -1076904449 -319207746 -1460933189</internalNodes>
          <leafValues>
            -3.0691581964492798e-01 2.5682255625724792e-01</leafValues></_></weakClassifiers></_></stages>
  <features>
    <_>
      <rect>
        0 0 2 4</rect></_>
    <_>
      <rect>
        0 0 4 2</rect></_>
    <_>
      <rect>
        0 0 5 2</rect></_>
    <_>
      <rect>
        0 5 4 7</rect></_>
    <_>
      <rect>
        0 5 7 9</rect></_>
    <_>
      <rect>
        0 21 1 3</rect></_>
    <_>
      <rect>
        0 25 2 2</rect></_>
    <_>
      <rect>
        1 0 2 3</rect></_>
    <_>
      <rect>
        1 0 10 2</rect></_>
    <_>
      <rect>
        1 4 2 1</rect></_>
    <_>
      <rect>
        1 29 2 1</rect></_>
    <_>
      <rect>
        2 0 1 2</rect></_>
    <_>
      <rect>
        2 1 2 2</rect></_>
    <_>
      <rect>
        2 1 10 4</rect></_>
    <_>
      <rect>
        2 3 1 1</rect></_>
    <_>
      <rect>
        2 3 2 1</rect></_>
    <_>
      <rect>
        2 29 1 1</rect></_>
    <_>
      <rect>
        3 2 1 1</rect></_>
    <_>
      <rect>
        3 2 1 2</rect></_>
    <_>
      <rect>
        3 17 3 4</rect></_>
    <_>
      <rect>
        4 15 2 4</rect></_>
    <_>
      <rect>
        5 0 1 1</rect></_>
    <_>
      <rect>
        5 6 7 5</rect></_>
    <_>
      <rect>
        5 12 2 2</rect></_>
    <_>
      <rect>
        6 0 3 1</rect></_>
    <_>
      <rect>
        6 7 4 5</rect></_>
    <_>
      <rect>
        6 16 4 4</rect></_>
    <_>
      <rect>
        6 25 3 2</rect></_>
    <_>
      <rect>
        7 10 2 2</rect></_>
    <_>
      <rect>
        8 0 8 2</rect></_>
    <_>
      <rect>
        8 10 2 1</rect></_>
    <_>
      <rect>
        8 22 2 2</rect></_>
    <_>
      <rect>
        9 1 3 4</rect></_>
    <_>
      <rect>
        9 6 5 5</rect></_>
    <_>
      <rect>
        9 8 6 3</rect></_>
    <_>
      <rect>
        9 12 3 5</rect></_>
    <_>
      <rect>
        10 0 1 1</rect></_>
    <_>
      <rect>
        10 7 5 3</rect></_>
    <_>
      <rect>
        10 7 7 5</rect></_>
    <_>
      <rect>
        10 9 3 3</rect></_>
    <_>
      <rect>
        10 9 5 3</rect></_>
    <_>
      <rect>
        10 10 3 5</rect></_>
    <_>
      <rect>
        10 11 2 4</rect></_>
    <_>
      <rect>
        10 12 5 2</rect></_>
    <_>
      <rect>
        10 14 2 2</rect></_>
    <_>
      <rect>
        10 15 2 3</rect></_>
    <_>
      <rect>
        10 17 1 1</rect></_>
    <_>
      <rect>
        10 23 2 3</rect></_>
    <_>
      <rect>
        10 23 5 3</rect></_>
    <_>
      <rect>
        11 7 4 6</rect></_>
    <_>
      <rect>
        11 8 3 4</rect></_>
    <_>
      <rect>
        11 9 5 3</rect></_>
    <_>
      <rect>
        11 11 6 2</rect></_>
    <_>
      <rect>
        11 12 2 2</rect></_>
    <_>
      <rect>
        11 13 2 1</rect></_>
    <_>
      <rect>
        12 4 4 6</rect></_>
    <_>
      <rect>
        12 10 2 2</rect></_>
    <_>
      <rect>
        12 12 4 6</rect></_>
    <_>
      <rect>
        12 21 3 2</rect></_>
    <_>
      <rect>
        12 22 4 2</rect></_>
    <_>
      <rect>
        13 8 1 1</rect></_>
    <_>
      <rect>
        13 10 3 2</rect></_>
    <_>
      <rect>
        13 10 4 2</rect></_>
    <_>
      <rect>
        13 15 2 2</rect></_>
    <_>
      <rect>
        13 28 1 1</rect></_>
    <_>
      <rect>
        14 10 3 2</rect></_>
    <_>
      <rect>
        15 8 1 2</rect></_>
    <_>
      <rect>
        15 11 2 4</rect></_>
    <_>
      <rect>
        15 15 2 2</rect></_>
    <_>
      <rect>
        15 23 1 1</rect></_>
    <_>
      <rect>
        16 1 1 1</rect></_>
    <_>
      <rect>
        16 9 3 4</rect></_>
    <_>
      <rect>
        16 10 3 2</rect></_>
    <_>
      <rect>
        16 14 1 1</rect></_>
    <_>
      <rect>
        16 17 1 1</rect></_>
    <_>
      <rect>
        16 20 1 1</rect></_>
    <_>
      <rect>
        16 23 1 1</rect></_>
    <_>
      <rect>
        16 29 1 1</rect></_>
    <_>
      <rect>
        17 1 3 2</rect></_>
    <_>
      <rect>
        17 8 3 4</rect></_>
    <_>
      <rect>
        17 10 3 3</rect></_>
    <_>
      <rect>
        17 11 1 1</rect></_>
    <_>
      <rect>
        17 15 1 1</rect></_>
    <_>
      <rect>
        17 17 1 1</rect></_>
    <_>
      <rect>
        17 18 2 1</rect></_>
    <_>
      <rect>
        18 0 1 1</rect></_>
    <_>
      <rect>
        18 8 1 2</rect></_>
    <_>
      <rect>
        18 10 2 1</rect></_>
    <_>
      <rect>
        18 12 3 3</rect></_>
    <_>
      <rect>
        18 14 3 4</rect></_>
    <_>
      <rect>
        18 23 3 3</rect></_>
    <_>
      <rect>
        19 12 2 2</rect></_>
    <_>
      <rect>
        19 12 2 5</rect></_>
    <_>
      <rect>
        19 24 1 2</rect></_>
    <_>
      <rect>
        20 11 2 5</rect></_>
    <_>
      <rect>
        20 13 2 3</rect></_>
    <_>
      <rect>
        21 0 3 1</rect></_>
    <_>
      <rect>
        21 2 1 1</rect></_>
    <_>
      <rect>
        21 28 1 1</rect></_>
    <_>
      <rect>
        22 0 2 1</rect></_>
    <_>
      <rect>
        22 5 2 3</rect></_>
    <_>
      <rect>
        22 16 2 2</rect></_>
    <_>
      <rect>
        22 17 3 4</rect></_>
    <_>
      <rect>
        22 24 2 2</rect></_>
    <_>
      <rect>
        23 2 3 8</rect></_>
    <_>
      <rect>
        23 9 3 3</rect></_>
    <_>
      <rect>
        23 10 1 1</rect></_>
    <_>
      <rect>
        23 11 2 4</rect></_>
    <_>
      <rect>
        23 21 3 3</rect></_>
    <_>
      <rect>
        23 23 1 1</rect></_>
    <_>
      <rect>
        24 10 1 2</rect></_>
    <_>
      <rect>
        25 0 2 2</rect></_>
    <_>
      <rect>
        25 20 2 2</rect></_>
    <_>
      <rect>
        26 0 2 2</rect></_>
    <_>
      <rect>
        28 0 1 1</rect></_>
    <_>
      <rect>
        28 1 1 1</rect></_>
    <_>
      <rect>
        29 0 1 1</rect></_>
    <_>
      <rect>
        29 0 1 3</rect></_>
    <_>
      <rect>
        29 1 1 2</rect></_>
    <_>
      <rect>
        29 29 1 1</rect></_></features></cascade>
</opencv_storage>
